<?xml version="1.0"?>
<opencv_storage>
<cascade>
  <stageType>BOOST</stageType>
  <featureType>HAAR</featureType>
  <height>15</height>
  <width>15</width>
  <stageParams>
    <boostType>GAB</boostType>
    <minHitRate>9.9500000476837158e-01</minHitRate>
    <maxFalseAlarm>3.0000001192092896e-01</maxFalseAlarm>
    <weightTrimRate>9.4999999999999996e-01</weightTrimRate>
    <maxDepth>1</maxDepth>
    <maxWeakCount>100</maxWeakCount></stageParams>
  <featureParams>
    <maxCatCount>0</maxCatCount>
    <featSize>1</featSize>
    <mode>BASIC</mode></featureParams>
  <stageNum>8</stageNum>
  <stages>
    <!-- stage 0 -->
    <_>
      <maxWeakCount>1</maxWeakCount>
      <stageThreshold>8.1395345926284790e-01</stageThreshold>
      <weakClassifiers>
        <_>
          <internalNodes>
            0 -1 2 -7.5987428426742554e-01</internalNodes>
          <leafValues>
            -1. 8.1395345926284790e-01</leafValues></_></weakClassifiers></_>
    <!-- stage 1 -->
    <_>
      <maxWeakCount>2</maxWeakCount>
      <stageThreshold>-1.4341145753860474e-01</stageThreshold>
      <weakClassifiers>
        <_>
          <internalNodes>
            0 -1 6 -6.2575602531433105e-01</internalNodes>
          <leafValues>
            7.5609755516052246e-01 -9.3617022037506104e-01</leafValues></_>
        <_>
          <internalNodes>
            0 -1 11 -6.0692671686410904e-03</internalNodes>
          <leafValues>
            8.3773326873779297e-01 -8.9950901269912720e-01</leafValues></_></weakClassifiers></_>
    <!-- stage 2 -->
    <_>
      <maxWeakCount>2</maxWeakCount>
      <stageThreshold>-3.6173510551452637e-01</stageThreshold>
      <weakClassifiers>
        <_>
          <internalNodes>
            0 -1 3 -4.0920143947005272e-03</internalNodes>
          <leafValues>
            7.6190477609634399e-01 -9.5698922872543335e-01</leafValues></_>
        <_>
          <internalNodes>
            0 -1 10 -1.0591798461973667e-02</internalNodes>
          <leafValues>
            5.9525412321090698e-01 -8.7113964557647705e-01</leafValues></_></weakClassifiers></_>
    <!-- stage 3 -->
    <_>
      <maxWeakCount>4</maxWeakCount>
      <stageThreshold>-4.1729202866554260e-01</stageThreshold>
      <weakClassifiers>
        <_>
          <internalNodes>
            0 -1 20 -4.0077837184071541e-03</internalNodes>
          <leafValues>
            6.4999997615814209e-01 -8.7368422746658325e-01</leafValues></_>
        <_>
          <internalNodes>
            0 -1 8 -5.8053795248270035e-02</internalNodes>
          <leafValues>
            6.6108906269073486e-01 -7.9693180322647095e-01</leafValues></_>
        <_>
          <internalNodes>
            0 -1 19 -9.1490419581532478e-03</internalNodes>
          <leafValues>
            6.5920209884643555e-01 -9.0791755914688110e-01</leafValues></_>
        <_>
          <internalNodes>
            0 -1 15 -2.0644081756472588e-02</internalNodes>
          <leafValues>
            7.0322066545486450e-01 -8.0866795778274536e-01</leafValues></_></weakClassifiers></_>
    <!-- stage 4 -->
    <_>
      <maxWeakCount>4</maxWeakCount>
      <stageThreshold>-6.0737180709838867e-01</stageThreshold>
      <weakClassifiers>
        <_>
          <internalNodes>
            0 -1 13 -1.0818718932569027e-02</internalNodes>
          <leafValues>
            4.7619047760963440e-01 -8.2795697450637817e-01</leafValues></_>
        <_>
          <internalNodes>
            0 -1 16 3.1185096595436335e-03</internalNodes>
          <leafValues>
            -7.7040731906890869e-01 5.7697194814682007e-01</leafValues></_>
        <_>
          <internalNodes>
            0 -1 1 8.9038033038377762e-03</internalNodes>
          <leafValues>
            4.9024018645286560e-01 -1.</leafValues></_>
        <_>
          <internalNodes>
            0 -1 4 5.9428764507174492e-03</internalNodes>
          <leafValues>
            -8.4662693738937378e-01 5.8865016698837280e-01</leafValues></_></weakClassifiers></_>
    <!-- stage 5 -->
    <_>
      <maxWeakCount>4</maxWeakCount>
      <stageThreshold>-1.2791916131973267e+00</stageThreshold>
      <weakClassifiers>
        <_>
          <internalNodes>
            0 -1 0 -1.3250845670700073e-01</internalNodes>
          <leafValues>
            5.8974361419677734e-01 -8.3333331346511841e-01</leafValues></_>
        <_>
          <internalNodes>
            0 -1 13 -9.0122669935226440e-03</internalNodes>
          <leafValues>
            6.2471050024032593e-01 -7.2447037696838379e-01</leafValues></_>
        <_>
          <internalNodes>
            0 -1 14 3.8501978851854801e-03</internalNodes>
          <leafValues>
            -5.2167487144470215e-01 8.6227971315383911e-01</leafValues></_>
        <_>
          <internalNodes>
            0 -1 7 -1.0086152702569962e-02</internalNodes>
          <leafValues>
            7.7331066131591797e-01 -5.8366763591766357e-01</leafValues></_></weakClassifiers></_>
    <!-- stage 6 -->
    <_>
      <maxWeakCount>3</maxWeakCount>
      <stageThreshold>-8.0460149049758911e-01</stageThreshold>
      <weakClassifiers>
        <_>
          <internalNodes>
            0 -1 17 -1.4337329193949699e-03</internalNodes>
          <leafValues>
            5.7894736528396606e-01 -8.1443297863006592e-01</leafValues></_>
        <_>
          <internalNodes>
            0 -1 9 3.4663896076381207e-03</internalNodes>
          <leafValues>
            -6.1294776201248169e-01 7.2720837593078613e-01</leafValues></_>
        <_>
          <internalNodes>
            0 -1 5 1.0640298947691917e-02</internalNodes>
          <leafValues>
            -7.1737688779830933e-01 7.3181062936782837e-01</leafValues></_></weakClassifiers></_>
    <!-- stage 7 -->
    <_>
      <maxWeakCount>2</maxWeakCount>
      <stageThreshold>-3.4723901748657227e-01</stageThreshold>
      <weakClassifiers>
        <_>
          <internalNodes>
            0 -1 12 -7.1470058173872530e-05</internalNodes>
          <leafValues>
            5.5000001192092896e-01 -8.3157896995544434e-01</leafValues></_>
        <_>
          <internalNodes>
            0 -1 18 2.9678360442630947e-04</internalNodes>
          <leafValues>
            -8.9723902940750122e-01 5.6053686141967773e-01</leafValues></_></weakClassifiers></_></stages>
  <features>
    <_>
      <rects>
        <_>
          0 0 10 8 -1.</_>
        <_>
          0 0 5 4 2.</_>
        <_>
          5 4 5 4 2.</_></rects>
      <tilted>0</tilted></_>
    <_>
      <rects>
        <_>
          0 2 14 1 -1.</_>
        <_>
          7 2 7 1 2.</_></rects>
      <tilted>0</tilted></_>
    <_>
      <rects>
        <_>
          0 3 9 12 -1.</_>
        <_>
          3 3 3 12 2.</_></rects>
      <tilted>0</tilted></_>
    <_>
      <rects>
        <_>
          0 4 12 2 -1.</_>
        <_>
          0 4 6 1 2.</_>
        <_>
          6 5 6 1 2.</_></rects>
      <tilted>0</tilted></_>
    <_>
      <rects>
        <_>
          1 0 2 8 -1.</_>
        <_>
          1 0 1 4 2.</_>
        <_>
          2 4 1 4 2.</_></rects>
      <tilted>0</tilted></_>
    <_>
      <rects>
        <_>
          1 0 2 12 -1.</_>
        <_>
          2 0 1 12 2.</_></rects>
      <tilted>0</tilted></_>
    <_>
      <rects>
        <_>
          1 3 12 8 -1.</_>
        <_>
          5 3 4 8 2.</_></rects>
      <tilted>0</tilted></_>
    <_>
      <rects>
        <_>
          1 4 10 2 -1.</_>
        <_>
          1 4 5 1 2.</_>
        <_>
          6 5 5 1 2.</_></rects>
      <tilted>0</tilted></_>
    <_>
      <rects>
        <_>
          1 6 5 6 -1.</_>
        <_>
          1 9 5 3 2.</_></rects>
      <tilted>0</tilted></_>
    <_>
      <rects>
        <_>
          1 13 11 2 -1.</_>
        <_>
          1 14 11 1 2.</_></rects>
      <tilted>0</tilted></_>
    <_>
      <rects>
        <_>
          2 7 4 1 -1.</_>
        <_>
          4 7 2 1 2.</_></rects>
      <tilted>0</tilted></_>
    <_>
      <rects>
        <_>
          2 8 5 2 -1.</_>
        <_>
          2 9 5 1 2.</_></rects>
      <tilted>0</tilted></_>
    <_>
      <rects>
        <_>
          5 0 4 4 -1.</_>
        <_>
          5 0 2 2 2.</_>
        <_>
          7 2 2 2 2.</_></rects>
      <tilted>0</tilted></_>
    <_>
      <rects>
        <_>
          6 11 6 4 -1.</_>
        <_>
          6 11 3 2 2.</_>
        <_>
          9 13 3 2 2.</_></rects>
      <tilted>0</tilted></_>
    <_>
      <rects>
        <_>
          7 5 4 1 -1.</_>
        <_>
          9 5 2 1 2.</_></rects>
      <tilted>0</tilted></_>
    <_>
      <rects>
        <_>
          7 10 8 4 -1.</_>
        <_>
          7 12 8 2 2.</_></rects>
      <tilted>0</tilted></_>
    <_>
      <rects>
        <_>
          8 2 4 4 -1.</_>
        <_>
          8 2 2 2 2.</_>
        <_>
          10 4 2 2 2.</_></rects>
      <tilted>0</tilted></_>
    <_>
      <rects>
        <_>
          8 11 2 4 -1.</_>
        <_>
          8 11 1 2 2.</_>
        <_>
          9 13 1 2 2.</_></rects>
      <tilted>0</tilted></_>
    <_>
      <rects>
        <_>
          9 6 2 1 -1.</_>
        <_>
          10 6 1 1 2.</_></rects>
      <tilted>0</tilted></_>
    <_>
      <rects>
        <_>
          13 6 2 8 -1.</_>
        <_>
          13 10 2 4 2.</_></rects>
      <tilted>0</tilted></_>
    <_>
      <rects>
        <_>
          13 10 1 4 -1.</_>
        <_>
          13 12 1 2 2.</_></rects>
      <tilted>0</tilted></_></features></cascade>
</opencv_storage>
